2.64919
-10.1254
-6.78781
-0.617113
2.54156
2.9738
2.32547
1.66221
7.52519
6.35631
0.403727
1.57654
-2.41459
-4.70129
-12.3684
-12.4138
-6.90482
-4.0914
-3.30863
20.9314
3.57153
10.4981
13.8707
-5.0578
-4.26626
-3.06167
-4.78946
0.0879631
2.37521
-1.91752
-3.31489
-4.95148
-1.7969
-0.371446
0.80668
-0.274479
-6.24818
-4.8019
0.859952
0.918696
3.6259
0.445172
-1.55957
-4.25622
-5.61486
-6.14745
-0.992297
-2.68782
-1.63398
0.47711
-4.07912
7.59409
-0.501917
-0.702441
2.10507
3.66088
-1.05165
-0.139842
-4.2366
0.810958
0.780254
1.44469
3.88024
3.37996
-4.57719
-3.6229
-3.35073
-1.27097
2.36413
3.33099
6.8834
9.0603
11.3023
7.20894
-3.82241
-0.786445
-3.76632
-3.81206
-11.6594
0.695483
0.651639
-2.86455
1.73871
1.29766
-8.19867
-0.135922
-5.42521
-1.00422
4.89606
5.54708
-6.19553
-2.64902
0.288572
-1.0457
-0.342321
-1.99073
0.0636231
-9.59592
5.02918
-1.1031
-4.45144
5.88035
-3.4926
10.4483
-6.21017
-1.40259
8.99264
2.22367
-6.46589
6.02002
-8.10408
-11.8064
10.1027
-2.18366
7.37422
13.0388
-5.032
-9.76507
1.56717
